<?xml version="1.0"?>
<opencv_storage>
<cascade>
  <stageType>BOOST</stageType>
  <featureType>HAAR</featureType>
  <height>25</height>
  <width>25</width>
  <stageParams>
    <boostType>GAB</boostType>
    <minHitRate>9.9500000476837158e-01</minHitRate>
    <maxFalseAlarm>5.0000000000000000e-01</maxFalseAlarm>
    <weightTrimRate>9.4999999999999996e-01</weightTrimRate>
    <maxDepth>1</maxDepth>
    <maxWeakCount>100</maxWeakCount></stageParams>
  <featureParams>
    <maxCatCount>0</maxCatCount>
    <featSize>1</featSize>
    <mode>BASIC</mode></featureParams>
  <stageNum>17</stageNum>
  <stages>
    <!-- stage 0 -->
    <_>
      <maxWeakCount>3</maxWeakCount>
      <stageThreshold>-1.2664283514022827e+00</stageThreshold>
      <weakClassifiers>
        <_>
          <internalNodes>
            0 -1 5 -1.9311617314815521e-01</internalNodes>
          <leafValues>
            6.0869562625885010e-01 -9.7959184646606445e-01</leafValues></_>
        <_>
          <internalNodes>
            0 -1 13 -2.3388725519180298e-01</internalNodes>
          <leafValues>
            8.0250155925750732e-01 -8.8467794656753540e-01</leafValues></_>
        <_>
          <internalNodes>
            0 -1 15 -1.6452839970588684e-01</internalNodes>
          <leafValues>
            5.9784138202667236e-01 -9.9012953042984009e-01</leafValues></_></weakClassifiers></_>
    <!-- stage 1 -->
    <_>
      <maxWeakCount>3</maxWeakCount>
      <stageThreshold>-1.3625230789184570e+00</stageThreshold>
      <weakClassifiers>
        <_>
          <internalNodes>
            0 -1 6 -5.4907023906707764e-01</internalNodes>
          <leafValues>
            3.4883719682693481e-01 -9.2592591047286987e-01</leafValues></_>
        <_>
          <internalNodes>
            0 -1 48 8.8971301913261414e-02</internalNodes>
          <leafValues>
            -8.4349119663238525e-01 4.2281758785247803e-01</leafValues></_>
        <_>
          <internalNodes>
            0 -1 31 -6.7656226456165314e-02</internalNodes>
          <leafValues>
            4.1271558403968811e-01 -8.5941475629806519e-01</leafValues></_></weakClassifiers></_>
    <!-- stage 2 -->
    <_>
      <maxWeakCount>3</maxWeakCount>
      <stageThreshold>-1.0871597528457642e+00</stageThreshold>
      <weakClassifiers>
        <_>
          <internalNodes>
            0 -1 16 -6.0291874408721924e-01</internalNodes>
          <leafValues>
            6.2962961196899414e-01 -8.8498401641845703e-01</leafValues></_>
        <_>
          <internalNodes>
            0 -1 12 -1.1204563826322556e-01</internalNodes>
          <leafValues>
            3.9111930131912231e-01 -9.4682365655899048e-01</leafValues></_>
        <_>
          <internalNodes>
            0 -1 53 1.0796172916889191e-01</internalNodes>
          <leafValues>
            -5.9329503774642944e-01 8.2403188943862915e-01</leafValues></_></weakClassifiers></_>
    <!-- stage 3 -->
    <_>
      <maxWeakCount>2</maxWeakCount>
      <stageThreshold>-7.4828404188156128e-01</stageThreshold>
      <weakClassifiers>
        <_>
          <internalNodes>
            0 -1 25 6.3542015850543976e-02</internalNodes>
          <leafValues>
            -8.9067524671554565e-01 5.8620691299438477e-01</leafValues></_>
        <_>
          <internalNodes>
            0 -1 3 -1.7062294483184814e-01</internalNodes>
          <leafValues>
            1.4239117503166199e-01 -9.6435046195983887e-01</leafValues></_></weakClassifiers></_>
    <!-- stage 4 -->
    <_>
      <maxWeakCount>2</maxWeakCount>
      <stageThreshold>-6.4239180088043213e-01</stageThreshold>
      <weakClassifiers>
        <_>
          <internalNodes>
            0 -1 7 -5.5738437175750732e-01</internalNodes>
          <leafValues>
            6.4705884456634521e-01 -9.2156863212585449e-01</leafValues></_>
        <_>
          <internalNodes>
            0 -1 4 -9.5116123557090759e-02</internalNodes>
          <leafValues>
            2.7917686104774475e-01 -9.1475069522857666e-01</leafValues></_></weakClassifiers></_>
    <!-- stage 5 -->
    <_>
      <maxWeakCount>4</maxWeakCount>
      <stageThreshold>-1.7670699357986450e+00</stageThreshold>
      <weakClassifiers>
        <_>
          <internalNodes>
            0 -1 27 -4.2601418495178223e-01</internalNodes>
          <leafValues>
            6.4705884456634521e-01 -8.3900928497314453e-01</leafValues></_>
        <_>
          <internalNodes>
            0 -1 41 1.9420243799686432e-02</internalNodes>
          <leafValues>
            -7.2041040658950806e-01 4.9314796924591064e-01</leafValues></_>
        <_>
          <internalNodes>
            0 -1 43 -1.0409069545858074e-05</internalNodes>
          <leafValues>
            5.7208764553070068e-01 -6.0752099752426147e-01</leafValues></_>
        <_>
          <internalNodes>
            0 -1 22 -2.7008668985217810e-04</internalNodes>
          <leafValues>
            -9.6803712844848633e-01 3.9987075328826904e-01</leafValues></_></weakClassifiers></_>
    <!-- stage 6 -->
    <_>
      <maxWeakCount>4</maxWeakCount>
      <stageThreshold>-1.3182946443557739e+00</stageThreshold>
      <weakClassifiers>
        <_>
          <internalNodes>
            0 -1 40 -5.9359520673751831e-02</internalNodes>
          <leafValues>
            5.7142859697341919e-01 -8.2208591699600220e-01</leafValues></_>
        <_>
          <internalNodes>
            0 -1 2 -6.3255712389945984e-02</internalNodes>
          <leafValues>
            7.6736703515052795e-02 -8.8990366458892822e-01</leafValues></_>
        <_>
          <internalNodes>
            0 -1 57 -1.1687129153870046e-04</internalNodes>
          <leafValues>
            -1. 2.0668876171112061e-01</leafValues></_>
        <_>
          <internalNodes>
            0 -1 49 3.0316718039102852e-04</internalNodes>
          <leafValues>
            -7.7963423728942871e-01 3.3167988061904907e-01</leafValues></_></weakClassifiers></_>
    <!-- stage 7 -->
    <_>
      <maxWeakCount>3</maxWeakCount>
      <stageThreshold>-1.2230533361434937e+00</stageThreshold>
      <weakClassifiers>
        <_>
          <internalNodes>
            0 -1 17 -4.2136079072952271e-01</internalNodes>
          <leafValues>
            1.2500000000000000e-01 -8.5714286565780640e-01</leafValues></_>
        <_>
          <internalNodes>
            0 -1 45 -1.5653471928089857e-04</internalNodes>
          <leafValues>
            2.6617017388343811e-01 -7.0141202211380005e-01</leafValues></_>
        <_>
          <internalNodes>
            0 -1 51 9.5016451086848974e-04</internalNodes>
          <leafValues>
            -6.3208067417144775e-01 4.8374816775321960e-01</leafValues></_></weakClassifiers></_>
    <!-- stage 8 -->
    <_>
      <maxWeakCount>4</maxWeakCount>
      <stageThreshold>-9.2753338813781738e-01</stageThreshold>
      <weakClassifiers>
        <_>
          <internalNodes>
            0 -1 24 -2.4751897901296616e-02</internalNodes>
          <leafValues>
            6.3636362552642822e-01 -8.1155014038085938e-01</leafValues></_>
        <_>
          <internalNodes>
            0 -1 30 -1.4579366892576218e-02</internalNodes>
          <leafValues>
            4.3859630823135376e-01 -5.7353579998016357e-01</leafValues></_>
        <_>
          <internalNodes>
            0 -1 58 8.7459804490208626e-05</internalNodes>
          <leafValues>
            2.6290619373321533e-01 -9.8449540138244629e-01</leafValues></_>
        <_>
          <internalNodes>
            0 -1 44 -4.0269267628900707e-05</internalNodes>
          <leafValues>
            2.9411920905113220e-01 -8.1748569011688232e-01</leafValues></_></weakClassifiers></_>
    <!-- stage 9 -->
    <_>
      <maxWeakCount>3</maxWeakCount>
      <stageThreshold>-1.0719610452651978e+00</stageThreshold>
      <weakClassifiers>
        <_>
          <internalNodes>
            0 -1 35 4.7877531498670578e-02</internalNodes>
          <leafValues>
            -8.5667753219604492e-01 9.0909093618392944e-02</leafValues></_>
        <_>
          <internalNodes>
            0 -1 26 -1.0353169403970242e-02</internalNodes>
          <leafValues>
            8.9739280939102173e-01 -5.0568783283233643e-01</leafValues></_>
        <_>
          <internalNodes>
            0 -1 23 -4.0193487075157464e-04</internalNodes>
          <leafValues>
            4.1242536902427673e-01 -6.5718233585357666e-01</leafValues></_></weakClassifiers></_>
    <!-- stage 10 -->
    <_>
      <maxWeakCount>4</maxWeakCount>
      <stageThreshold>-1.4150959253311157e+00</stageThreshold>
      <weakClassifiers>
        <_>
          <internalNodes>
            0 -1 20 1.0136093944311142e-02</internalNodes>
          <leafValues>
            -8.0180180072784424e-01 1.</leafValues></_>
        <_>
          <internalNodes>
            0 -1 10 -3.4611512091942132e-05</internalNodes>
          <leafValues>
            -9.3584716320037842e-01 2.9343679547309875e-02</leafValues></_>
        <_>
          <internalNodes>
            0 -1 11 -6.8441091571003199e-05</internalNodes>
          <leafValues>
            -1. 1.9497869908809662e-01</leafValues></_>
        <_>
          <internalNodes>
            0 -1 18 1.5386704762931913e-04</internalNodes>
          <leafValues>
            -8.3761650323867798e-01 2.6320642232894897e-01</leafValues></_></weakClassifiers></_>
    <!-- stage 11 -->
    <_>
      <maxWeakCount>4</maxWeakCount>
      <stageThreshold>-1.2554070949554443e+00</stageThreshold>
      <weakClassifiers>
        <_>
          <internalNodes>
            0 -1 9 -2.3526608943939209e-01</internalNodes>
          <leafValues>
            1. -8.0722892284393311e-01</leafValues></_>
        <_>
          <internalNodes>
            0 -1 37 -5.1887810230255127e-02</internalNodes>
          <leafValues>
            2.3524916172027588e-01 -7.9159581661224365e-01</leafValues></_>
        <_>
          <internalNodes>
            0 -1 34 2.9477482894435525e-04</internalNodes>
          <leafValues>
            2.1387720108032227e-01 -9.1717642545700073e-01</leafValues></_>
        <_>
          <internalNodes>
            0 -1 56 8.6366912000812590e-05</internalNodes>
          <leafValues>
            2.3374906182289124e-01 -8.6213630437850952e-01</leafValues></_></weakClassifiers></_>
    <!-- stage 12 -->
    <_>
      <maxWeakCount>4</maxWeakCount>
      <stageThreshold>-1.1944651603698730e+00</stageThreshold>
      <weakClassifiers>
        <_>
          <internalNodes>
            0 -1 33 3.0935383401811123e-03</internalNodes>
          <leafValues>
            -8.1268882751464844e-01 1.</leafValues></_>
        <_>
          <internalNodes>
            0 -1 8 -7.6403198763728142e-03</internalNodes>
          <leafValues>
            7.9696970060467720e-03 -9.3448120355606079e-01</leafValues></_>
        <_>
          <internalNodes>
            0 -1 54 -1.0409069545858074e-05</internalNodes>
          <leafValues>
            3.5039409995079041e-01 -6.2577450275421143e-01</leafValues></_>
        <_>
          <internalNodes>
            0 -1 0 -9.2045038400101475e-06</internalNodes>
          <leafValues>
            -9.3046164512634277e-01 2.3602841794490814e-01</leafValues></_></weakClassifiers></_>
    <!-- stage 13 -->
    <_>
      <maxWeakCount>5</maxWeakCount>
      <stageThreshold>-1.6908149719238281e+00</stageThreshold>
      <weakClassifiers>
        <_>
          <internalNodes>
            0 -1 19 -5.4902367293834686e-02</internalNodes>
          <leafValues>
            1. -8.1268882751464844e-01</leafValues></_>
        <_>
          <internalNodes>
            0 -1 32 5.8496411889791489e-02</internalNodes>
          <leafValues>
            -7.1838748455047607e-01 1.8995976448059082e-01</leafValues></_>
        <_>
          <internalNodes>
            0 -1 38 1.3075579772703350e-04</internalNodes>
          <leafValues>
            -7.5703626871109009e-01 3.2526695728302002e-01</leafValues></_>
        <_>
          <internalNodes>
            0 -1 46 -1.1825993657112122e-02</internalNodes>
          <leafValues>
            2.7655115723609924e-01 -7.9455953836441040e-01</leafValues></_>
        <_>
          <internalNodes>
            0 -1 52 1.0142124665435404e-05</internalNodes>
          <leafValues>
            -6.9380033016204834e-01 3.0955389142036438e-01</leafValues></_></weakClassifiers></_>
    <!-- stage 14 -->
    <_>
      <maxWeakCount>4</maxWeakCount>
      <stageThreshold>-1.1787189245223999e+00</stageThreshold>
      <weakClassifiers>
        <_>
          <internalNodes>
            0 -1 14 -2.9171101748943329e-02</internalNodes>
          <leafValues>
            1. -8.0722892284393311e-01</leafValues></_>
        <_>
          <internalNodes>
            0 -1 55 9.6517069323454052e-05</internalNodes>
          <leafValues>
            1.9390611350536346e-01 -8.2140743732452393e-01</leafValues></_>
        <_>
          <internalNodes>
            0 -1 42 1.5405375510454178e-02</internalNodes>
          <leafValues>
            -8.2383620738983154e-01 2.4493865668773651e-01</leafValues></_>
        <_>
          <internalNodes>
            0 -1 47 -7.7076414600014687e-03</internalNodes>
          <leafValues>
            -9.5861107110977173e-01 2.5844007730484009e-01</leafValues></_></weakClassifiers></_>
    <!-- stage 15 -->
    <_>
      <maxWeakCount>4</maxWeakCount>
      <stageThreshold>-1.2752634286880493e+00</stageThreshold>
      <weakClassifiers>
        <_>
          <internalNodes>
            0 -1 28 2.1855423226952553e-02</internalNodes>
          <leafValues>
            -8.3281731605529785e-01 5.2941179275512695e-01</leafValues></_>
        <_>
          <internalNodes>
            0 -1 1 3.3186571090482175e-04</internalNodes>
          <leafValues>
            1.1171938478946686e-01 -7.8823965787887573e-01</leafValues></_>
        <_>
          <internalNodes>
            0 -1 36 -3.4902237355709076e-02</internalNodes>
          <leafValues>
            3.6294889450073242e-01 -6.6673350334167480e-01</leafValues></_>
        <_>
          <internalNodes>
            0 -1 21 2.8259488753974438e-03</internalNodes>
          <leafValues>
            2.3133845627307892e-01 -9.1711437702178955e-01</leafValues></_></weakClassifiers></_>
    <!-- stage 16 -->
    <_>
      <maxWeakCount>3</maxWeakCount>
      <stageThreshold>-1.2284297943115234e+00</stageThreshold>
      <weakClassifiers>
        <_>
          <internalNodes>
            0 -1 29 -5.0015551969408989e-03</internalNodes>
          <leafValues>
            1. -8.1818181276321411e-01</leafValues></_>
        <_>
          <internalNodes>
            0 -1 39 -9.8982185591012239e-05</internalNodes>
          <leafValues>
            2.2775626182556152e-01 -8.2628458738327026e-01</leafValues></_>
        <_>
          <internalNodes>
            0 -1 50 -1.2252936139702797e-03</internalNodes>
          <leafValues>
            4.5374855399131775e-01 -6.3800424337387085e-01</leafValues></_></weakClassifiers></_></stages>
  <features>
    <_>
      <rects>
        <_>
          0 0 3 4 -1.</_>
        <_>
          1 0 1 4 3.</_></rects>
      <tilted>0</tilted></_>
    <_>
      <rects>
        <_>
          0 0 3 23 -1.</_>
        <_>
          1 0 1 23 3.</_></rects>
      <tilted>0</tilted></_>
    <_>
      <rects>
        <_>
          0 0 12 11 -1.</_>
        <_>
          6 0 6 11 2.</_></rects>
      <tilted>0</tilted></_>
    <_>
      <rects>
        <_>
          0 0 22 14 -1.</_>
        <_>
          0 7 22 7 2.</_></rects>
      <tilted>0</tilted></_>
    <_>
      <rects>
        <_>
          0 1 24 7 -1.</_>
        <_>
          8 1 8 7 3.</_></rects>
      <tilted>0</tilted></_>
    <_>
      <rects>
        <_>
          0 4 12 19 -1.</_>
        <_>
          6 4 6 19 2.</_></rects>
      <tilted>0</tilted></_>
    <_>
      <rects>
        <_>
          0 4 24 19 -1.</_>
        <_>
          8 4 8 19 3.</_></rects>
      <tilted>0</tilted></_>
    <_>
      <rects>
        <_>
          0 6 24 19 -1.</_>
        <_>
          8 6 8 19 3.</_></rects>
      <tilted>0</tilted></_>
    <_>
      <rects>
        <_>
          0 6 9 15 -1.</_>
        <_>
          0 11 9 5 3.</_></rects>
      <tilted>0</tilted></_>
    <_>
      <rects>
        <_>
          0 7 16 8 -1.</_>
        <_>
          8 7 8 8 2.</_></rects>
      <tilted>0</tilted></_>
    <_>
      <rects>
        <_>
          0 8 2 12 -1.</_>
        <_>
          0 8 1 6 2.</_>
        <_>
          1 14 1 6 2.</_></rects>
      <tilted>0</tilted></_>
    <_>
      <rects>
        <_>
          0 11 1 9 -1.</_>
        <_>
          0 14 1 3 3.</_></rects>
      <tilted>0</tilted></_>
    <_>
      <rects>
        <_>
          0 12 12 12 -1.</_>
        <_>
          6 12 6 12 2.</_></rects>
      <tilted>0</tilted></_>
    <_>
      <rects>
        <_>
          0 16 24 8 -1.</_>
        <_>
          8 16 8 8 3.</_></rects>
      <tilted>0</tilted></_>
    <_>
      <rects>
        <_>
          0 22 14 1 -1.</_>
        <_>
          7 22 7 1 2.</_></rects>
      <tilted>0</tilted></_>
    <_>
      <rects>
        <_>
          1 0 24 14 -1.</_>
        <_>
          1 7 24 7 2.</_></rects>
      <tilted>0</tilted></_>
    <_>
      <rects>
        <_>
          1 6 24 17 -1.</_>
        <_>
          9 6 8 17 3.</_></rects>
      <tilted>0</tilted></_>
    <_>
      <rects>
        <_>
          1 12 24 9 -1.</_>
        <_>
          9 12 8 9 3.</_></rects>
      <tilted>0</tilted></_>
    <_>
      <rects>
        <_>
          1 17 6 8 -1.</_>
        <_>
          1 17 3 4 2.</_>
        <_>
          4 21 3 4 2.</_></rects>
      <tilted>0</tilted></_>
    <_>
      <rects>
        <_>
          1 22 24 1 -1.</_>
        <_>
          9 22 8 1 3.</_></rects>
      <tilted>0</tilted></_>
    <_>
      <rects>
        <_>
          2 9 3 4 -1.</_>
        <_>
          3 9 1 4 3.</_></rects>
      <tilted>0</tilted></_>
    <_>
      <rects>
        <_>
          2 14 14 4 -1.</_>
        <_>
          2 14 7 2 2.</_>
        <_>
          9 16 7 2 2.</_></rects>
      <tilted>0</tilted></_>
    <_>
      <rects>
        <_>
          3 0 6 1 -1.</_>
        <_>
          6 0 3 1 2.</_></rects>
      <tilted>0</tilted></_>
    <_>
      <rects>
        <_>
          3 4 12 3 -1.</_>
        <_>
          3 5 12 1 3.</_></rects>
      <tilted>0</tilted></_>
    <_>
      <rects>
        <_>
          3 9 6 4 -1.</_>
        <_>
          5 9 2 4 3.</_></rects>
      <tilted>0</tilted></_>
    <_>
      <rects>
        <_>
          3 18 18 6 -1.</_>
        <_>
          3 21 18 3 2.</_></rects>
      <tilted>0</tilted></_>
    <_>
      <rects>
        <_>
          4 22 15 3 -1.</_>
        <_>
          4 23 15 1 3.</_></rects>
      <tilted>0</tilted></_>
    <_>
      <rects>
        <_>
          5 1 13 24 -1.</_>
        <_>
          5 9 13 8 3.</_></rects>
      <tilted>0</tilted></_>
    <_>
      <rects>
        <_>
          6 4 9 15 -1.</_>
        <_>
          6 9 9 5 3.</_></rects>
      <tilted>0</tilted></_>
    <_>
      <rects>
        <_>
          6 21 6 3 -1.</_>
        <_>
          6 22 6 1 3.</_></rects>
      <tilted>0</tilted></_>
    <_>
      <rects>
        <_>
          7 2 9 6 -1.</_>
        <_>
          7 4 9 2 3.</_></rects>
      <tilted>0</tilted></_>
    <_>
      <rects>
        <_>
          8 0 11 10 -1.</_>
        <_>
          8 5 11 5 2.</_></rects>
      <tilted>0</tilted></_>
    <_>
      <rects>
        <_>
          8 17 16 3 -1.</_>
        <_>
          16 17 8 3 2.</_></rects>
      <tilted>0</tilted></_>
    <_>
      <rects>
        <_>
          9 4 8 3 -1.</_>
        <_>
          9 5 8 1 3.</_></rects>
      <tilted>0</tilted></_>
    <_>
      <rects>
        <_>
          9 15 2 4 -1.</_>
        <_>
          9 15 1 2 2.</_>
        <_>
          10 17 1 2 2.</_></rects>
      <tilted>0</tilted></_>
    <_>
      <rects>
        <_>
          9 17 4 8 -1.</_>
        <_>
          9 21 4 4 2.</_></rects>
      <tilted>0</tilted></_>
    <_>
      <rects>
        <_>
          10 1 6 8 -1.</_>
        <_>
          10 5 6 4 2.</_></rects>
      <tilted>0</tilted></_>
    <_>
      <rects>
        <_>
          10 10 15 10 -1.</_>
        <_>
          15 10 5 10 3.</_></rects>
      <tilted>0</tilted></_>
    <_>
      <rects>
        <_>
          10 14 13 2 -1.</_>
        <_>
          10 15 13 1 2.</_></rects>
      <tilted>0</tilted></_>
    <_>
      <rects>
        <_>
          11 13 3 2 -1.</_>
        <_>
          12 13 1 2 3.</_></rects>
      <tilted>0</tilted></_>
    <_>
      <rects>
        <_>
          11 16 7 9 -1.</_>
        <_>
          11 19 7 3 3.</_></rects>
      <tilted>0</tilted></_>
    <_>
      <rects>
        <_>
          11 20 14 1 -1.</_>
        <_>
          18 20 7 1 2.</_></rects>
      <tilted>0</tilted></_>
    <_>
      <rects>
        <_>
          12 6 12 3 -1.</_>
        <_>
          18 6 6 3 2.</_></rects>
      <tilted>0</tilted></_>
    <_>
      <rects>
        <_>
          12 16 2 2 -1.</_>
        <_>
          12 16 1 1 2.</_>
        <_>
          13 17 1 1 2.</_></rects>
      <tilted>0</tilted></_>
    <_>
      <rects>
        <_>
          13 8 1 2 -1.</_>
        <_>
          13 9 1 1 2.</_></rects>
      <tilted>0</tilted></_>
    <_>
      <rects>
        <_>
          13 9 1 2 -1.</_>
        <_>
          13 10 1 1 2.</_></rects>
      <tilted>0</tilted></_>
    <_>
      <rects>
        <_>
          14 2 4 20 -1.</_>
        <_>
          14 12 4 10 2.</_></rects>
      <tilted>0</tilted></_>
    <_>
      <rects>
        <_>
          14 7 8 8 -1.</_>
        <_>
          14 7 4 4 2.</_>
        <_>
          18 11 4 4 2.</_></rects>
      <tilted>0</tilted></_>
    <_>
      <rects>
        <_>
          15 12 10 11 -1.</_>
        <_>
          20 12 5 11 2.</_></rects>
      <tilted>0</tilted></_>
    <_>
      <rects>
        <_>
          15 13 10 4 -1.</_>
        <_>
          15 15 10 2 2.</_></rects>
      <tilted>0</tilted></_>
    <_>
      <rects>
        <_>
          16 7 7 2 -1.</_>
        <_>
          16 8 7 1 2.</_></rects>
      <tilted>0</tilted></_>
    <_>
      <rects>
        <_>
          17 17 7 2 -1.</_>
        <_>
          17 18 7 1 2.</_></rects>
      <tilted>0</tilted></_>
    <_>
      <rects>
        <_>
          18 23 6 2 -1.</_>
        <_>
          20 23 2 2 3.</_></rects>
      <tilted>0</tilted></_>
    <_>
      <rects>
        <_>
          19 3 6 19 -1.</_>
        <_>
          22 3 3 19 2.</_></rects>
      <tilted>0</tilted></_>
    <_>
      <rects>
        <_>
          19 23 6 2 -1.</_>
        <_>
          19 23 3 1 2.</_>
        <_>
          22 24 3 1 2.</_></rects>
      <tilted>0</tilted></_>
    <_>
      <rects>
        <_>
          22 11 3 14 -1.</_>
        <_>
          23 11 1 14 3.</_></rects>
      <tilted>0</tilted></_>
    <_>
      <rects>
        <_>
          23 6 1 6 -1.</_>
        <_>
          23 8 1 2 3.</_></rects>
      <tilted>0</tilted></_>
    <_>
      <rects>
        <_>
          24 1 1 6 -1.</_>
        <_>
          24 4 1 3 2.</_></rects>
      <tilted>0</tilted></_>
    <_>
      <rects>
        <_>
          24 15 1 6 -1.</_>
        <_>
          24 18 1 3 2.</_></rects>
      <tilted>0</tilted></_></features></cascade>
</opencv_storage>
